digraph Tree {
node [shape=box, style="filled, rounded", color="black", fontname=helvetica] ;
edge [fontname=helvetica] ;
0 [label="Anterior-Tag_INP <= 0.5\ngini = 0.691\nsamples = 512\nvalue = [111, 42, 95, 16, 1, 240, 7]\nclass = INP", fillcolor="#b139e552"] ;
1 [label="POS_VERB <= 0.5\ngini = 0.736\nsamples = 272\nvalue = [108, 42, 27, 16, 1, 71, 7]\nclass = BNP", fillcolor="#e581392f"] ;
0 -> 1 [labeldistance=2.5, labelangle=45, headlabel="True"] ;
2 [label="Anterior-Tag_NONE <= 0.5\ngini = 0.623\nsamples = 209\nvalue = [106, 7, 23, 1, 1, 68, 3]\nclass = BNP", fillcolor="#e5813945"] ;
1 -> 2 ;
3 [label="Anterior-Tag_ENP <= 0.5\ngini = 0.652\nsamples = 184\nvalue = [81, 7, 23, 1, 1, 68, 3]\nclass = BNP", fillcolor="#e581391d"] ;
2 -> 3 ;
4 [label="Anterior-Tag_BVP <= 0.5\ngini = 0.648\nsamples = 143\nvalue = [48, 1, 23, 1, 1, 66, 3]\nclass = INP", fillcolor="#b139e530"] ;
3 -> 4 ;
5 [label="Anterior-Tag_EVP <= 0.5\ngini = 0.587\nsamples = 114\nvalue = [22, 1, 23, 0, 1, 66, 1]\nclass = INP", fillcolor="#b139e578"] ;
4 -> 5 ;
6 [label="POS_PUNCT <= 0.5\ngini = 0.487\nsamples = 98\nvalue = [6, 1, 23, 0, 1, 66, 1]\nclass = INP", fillcolor="#b139e592"] ;
5 -> 6 ;
7 [label="POS_DET <= 0.5\ngini = 0.457\nsamples = 95\nvalue = [3, 1, 23, 0, 1, 66, 1]\nclass = INP", fillcolor="#b139e598"] ;
6 -> 7 ;
8 [label="POS_SCONJ <= 0.5\ngini = 0.53\nsamples = 68\nvalue = [2, 1, 22, 0, 1, 41, 1]\nclass = INP", fillcolor="#b139e569"] ;
7 -> 8 ;
9 [label="POS_ADP <= 0.5\ngini = 0.502\nsamples = 66\nvalue = [2, 0, 22, 0, 1, 41, 0]\nclass = INP", fillcolor="#b139e56e"] ;
8 -> 9 ;
10 [label="POS_NUM <= 0.5\ngini = 0.512\nsamples = 58\nvalue = [1, 0, 22, 0, 1, 34, 0]\nclass = INP", fillcolor="#b139e555"] ;
9 -> 10 ;
11 [label="POS_PROPN <= 0.5\ngini = 0.502\nsamples = 54\nvalue = [1, 0, 19, 0, 1, 33, 0]\nclass = INP", fillcolor="#b139e566"] ;
10 -> 11 ;
12 [label="POS_ADV <= 0.5\ngini = 0.487\nsamples = 50\nvalue = [1, 0, 16, 0, 1, 32, 0]\nclass = INP", fillcolor="#b139e578"] ;
11 -> 12 ;
13 [label="POS_NOUN <= 0.5\ngini = 0.497\nsamples = 48\nvalue = [1, 0, 16, 0, 1, 30, 0]\nclass = INP", fillcolor="#b139e570"] ;
12 -> 13 ;
14 [label="POS_PRON <= 0.5\ngini = 0.571\nsamples = 7\nvalue = [1, 0, 2, 0, 0, 4, 0]\nclass = INP", fillcolor="#b139e566"] ;
13 -> 14 ;
15 [label="gini = 0.56\nsamples = 5\nvalue = [1, 0, 1, 0, 0, 3, 0]\nclass = INP", fillcolor="#b139e57f"] ;
14 -> 15 ;
16 [label="gini = 0.5\nsamples = 2\nvalue = [0, 0, 1, 0, 0, 1, 0]\nclass = ENP", fillcolor="#39e54d00"] ;
14 -> 16 ;
17 [label="gini = 0.481\nsamples = 41\nvalue = [0, 0, 14, 0, 1, 26, 0]\nclass = INP", fillcolor="#b139e571"] ;
13 -> 17 ;
18 [label="gini = 0.0\nsamples = 2\nvalue = [0, 0, 0, 0, 0, 2, 0]\nclass = INP", fillcolor="#b139e5ff"] ;
12 -> 18 ;
19 [label="gini = 0.375\nsamples = 4\nvalue = [0, 0, 3, 0, 0, 1, 0]\nclass = ENP", fillcolor="#39e54daa"] ;
11 -> 19 ;
20 [label="gini = 0.375\nsamples = 4\nvalue = [0, 0, 3, 0, 0, 1, 0]\nclass = ENP", fillcolor="#39e54daa"] ;
10 -> 20 ;
21 [label="Anterior-Tag_IMP <= 0.5\ngini = 0.219\nsamples = 8\nvalue = [1, 0, 0, 0, 0, 7, 0]\nclass = INP", fillcolor="#b139e5db"] ;
9 -> 21 ;
22 [label="gini = 0.245\nsamples = 7\nvalue = [1, 0, 0, 0, 0, 6, 0]\nclass = INP", fillcolor="#b139e5d4"] ;
21 -> 22 ;
23 [label="gini = 0.0\nsamples = 1\nvalue = [0, 0, 0, 0, 0, 1, 0]\nclass = INP", fillcolor="#b139e5ff"] ;
21 -> 23 ;
24 [label="Anterior-Tag_IVP <= 0.5\ngini = 0.5\nsamples = 2\nvalue = [0, 1, 0, 0, 0, 0, 1]\nclass = BVP", fillcolor="#b7e53900"] ;
8 -> 24 ;
25 [label="gini = 0.0\nsamples = 1\nvalue = [0, 1, 0, 0, 0, 0, 0]\nclass = BVP", fillcolor="#b7e539ff"] ;
24 -> 25 ;
26 [label="gini = 0.0\nsamples = 1\nvalue = [0, 0, 0, 0, 0, 0, 1]\nclass = IVP", fillcolor="#e53986ff"] ;
24 -> 26 ;
27 [label="gini = 0.14\nsamples = 27\nvalue = [1, 0, 1, 0, 0, 25, 0]\nclass = INP", fillcolor="#b139e5eb"] ;
7 -> 27 ;
28 [label="gini = 0.0\nsamples = 3\nvalue = [3, 0, 0, 0, 0, 0, 0]\nclass = BNP", fillcolor="#e58139ff"] ;
6 -> 28 ;
29 [label="gini = 0.0\nsamples = 16\nvalue = [16, 0, 0, 0, 0, 0, 0]\nclass = BNP", fillcolor="#e58139ff"] ;
5 -> 29 ;
30 [label="POS_ADV <= 0.5\ngini = 0.19\nsamples = 29\nvalue = [26, 0, 0, 1, 0, 0, 2]\nclass = BNP", fillcolor="#e58139e3"] ;
4 -> 30 ;
31 [label="POS_ADP <= 0.5\ngini = 0.137\nsamples = 27\nvalue = [25, 0, 0, 0, 0, 0, 2]\nclass = BNP", fillcolor="#e58139eb"] ;
30 -> 31 ;
32 [label="POS_NOUN <= 0.5\ngini = 0.188\nsamples = 19\nvalue = [17, 0, 0, 0, 0, 0, 2]\nclass = BNP", fillcolor="#e58139e1"] ;
31 -> 32 ;
33 [label="POS_DET <= 0.5\ngini = 0.219\nsamples = 16\nvalue = [14, 0, 0, 0, 0, 0, 2]\nclass = BNP", fillcolor="#e58139db"] ;
32 -> 33 ;
34 [label="POS_INTJ <= 0.5\ngini = 0.375\nsamples = 4\nvalue = [3, 0, 0, 0, 0, 0, 1]\nclass = BNP", fillcolor="#e58139aa"] ;
33 -> 34 ;
35 [label="POS_PRON <= 0.5\ngini = 0.444\nsamples = 3\nvalue = [2, 0, 0, 0, 0, 0, 1]\nclass = BNP", fillcolor="#e581397f"] ;
34 -> 35 ;
36 [label="gini = 0.5\nsamples = 2\nvalue = [1, 0, 0, 0, 0, 0, 1]\nclass = BNP", fillcolor="#e5813900"] ;
35 -> 36 ;
37 [label="gini = 0.0\nsamples = 1\nvalue = [1, 0, 0, 0, 0, 0, 0]\nclass = BNP", fillcolor="#e58139ff"] ;
35 -> 37 ;
38 [label="gini = 0.0\nsamples = 1\nvalue = [1, 0, 0, 0, 0, 0, 0]\nclass = BNP", fillcolor="#e58139ff"] ;
34 -> 38 ;
39 [label="gini = 0.153\nsamples = 12\nvalue = [11, 0, 0, 0, 0, 0, 1]\nclass = BNP", fillcolor="#e58139e8"] ;
33 -> 39 ;
40 [label="gini = 0.0\nsamples = 3\nvalue = [3, 0, 0, 0, 0, 0, 0]\nclass = BNP", fillcolor="#e58139ff"] ;
32 -> 40 ;
41 [label="gini = 0.0\nsamples = 8\nvalue = [8, 0, 0, 0, 0, 0, 0]\nclass = BNP", fillcolor="#e58139ff"] ;
31 -> 41 ;
42 [label="gini = 0.5\nsamples = 2\nvalue = [1, 0, 0, 1, 0, 0, 0]\nclass = BNP", fillcolor="#e5813900"] ;
30 -> 42 ;
43 [label="POS_SCONJ <= 0.5\ngini = 0.328\nsamples = 41\nvalue = [33, 6, 0, 0, 0, 2, 0]\nclass = BNP", fillcolor="#e58139c5"] ;
3 -> 43 ;
44 [label="POS_ADV <= 0.5\ngini = 0.271\nsamples = 39\nvalue = [33, 4, 0, 0, 0, 2, 0]\nclass = BNP", fillcolor="#e58139d3"] ;
43 -> 44 ;
45 [label="POS_ADP <= 0.5\ngini = 0.204\nsamples = 36\nvalue = [32, 2, 0, 0, 0, 2, 0]\nclass = BNP", fillcolor="#e58139e1"] ;
44 -> 45 ;
46 [label="POS_PUNCT <= 0.5\ngini = 0.08\nsamples = 24\nvalue = [23, 1, 0, 0, 0, 0, 0]\nclass = BNP", fillcolor="#e58139f4"] ;
45 -> 46 ;
47 [label="gini = 0.0\nsamples = 18\nvalue = [18, 0, 0, 0, 0, 0, 0]\nclass = BNP", fillcolor="#e58139ff"] ;
46 -> 47 ;
48 [label="gini = 0.278\nsamples = 6\nvalue = [5, 1, 0, 0, 0, 0, 0]\nclass = BNP", fillcolor="#e58139cc"] ;
46 -> 48 ;
49 [label="gini = 0.403\nsamples = 12\nvalue = [9, 1, 0, 0, 0, 2, 0]\nclass = BNP", fillcolor="#e58139b2"] ;
45 -> 49 ;
50 [label="gini = 0.444\nsamples = 3\nvalue = [1, 2, 0, 0, 0, 0, 0]\nclass = BVP", fillcolor="#b7e5397f"] ;
44 -> 50 ;
51 [label="gini = 0.0\nsamples = 2\nvalue = [0, 2, 0, 0, 0, 0, 0]\nclass = BVP", fillcolor="#b7e539ff"] ;
43 -> 51 ;
52 [label="gini = 0.0\nsamples = 25\nvalue = [25, 0, 0, 0, 0, 0, 0]\nclass = BNP", fillcolor="#e58139ff"] ;
2 -> 52 ;
53 [label="Anterior-Tag_ENP <= 0.5\ngini = 0.623\nsamples = 63\nvalue = [2, 35, 4, 15, 0, 3, 4]\nclass = BVP", fillcolor="#b7e5396a"] ;
1 -> 53 ;
54 [label="Anterior-Tag_BVP <= 0.5\ngini = 0.722\nsamples = 33\nvalue = [1, 6, 4, 15, 0, 3, 4]\nclass = EVP", fillcolor="#39e5e255"] ;
53 -> 54 ;
55 [label="Anterior-Tag_IVP <= 0.5\ngini = 0.78\nsamples = 20\nvalue = [1, 6, 4, 5, 0, 3, 1]\nclass = BVP", fillcolor="#b7e53911"] ;
54 -> 55 ;
56 [label="gini = 0.684\nsamples = 14\nvalue = [1, 6, 4, 0, 0, 3, 0]\nclass = BVP", fillcolor="#b7e53933"] ;
55 -> 56 ;
57 [label="gini = 0.278\nsamples = 6\nvalue = [0, 0, 0, 5, 0, 0, 1]\nclass = EVP", fillcolor="#39e5e2cc"] ;
55 -> 57 ;
58 [label="gini = 0.355\nsamples = 13\nvalue = [0, 0, 0, 10, 0, 0, 3]\nclass = EVP", fillcolor="#39e5e2b3"] ;
54 -> 58 ;
59 [label="gini = 0.064\nsamples = 30\nvalue = [1, 29, 0, 0, 0, 0, 0]\nclass = BVP", fillcolor="#b7e539f6"] ;
53 -> 59 ;
60 [label="POS_ADP <= 0.5\ngini = 0.424\nsamples = 240\nvalue = [3, 0, 68, 0, 0, 169, 0]\nclass = INP", fillcolor="#b139e596"] ;
0 -> 60 [labeldistance=2.5, labelangle=-45, headlabel="False"] ;
61 [label="POS_DET <= 0.5\ngini = 0.475\nsamples = 191\nvalue = [3, 0, 67, 0, 0, 121, 0]\nclass = INP", fillcolor="#b139e56f"] ;
60 -> 61 ;
62 [label="POS_PROPN <= 0.5\ngini = 0.496\nsamples = 158\nvalue = [1, 0, 67, 0, 0, 90, 0]\nclass = INP", fillcolor="#b139e540"] ;
61 -> 62 ;
63 [label="POS_VERB <= 0.5\ngini = 0.49\nsamples = 139\nvalue = [1, 0, 56, 0, 0, 82, 0]\nclass = INP", fillcolor="#b139e550"] ;
62 -> 63 ;
64 [label="POS_SCONJ <= 0.5\ngini = 0.481\nsamples = 124\nvalue = [1, 0, 47, 0, 0, 76, 0]\nclass = INP", fillcolor="#b139e560"] ;
63 -> 64 ;
65 [label="POS_NOUN <= 0.5\ngini = 0.478\nsamples = 123\nvalue = [1, 0, 46, 0, 0, 76, 0]\nclass = INP", fillcolor="#b139e563"] ;
64 -> 65 ;
66 [label="POS_PUNCT <= 0.5\ngini = 0.429\nsamples = 31\nvalue = [1, 0, 8, 0, 0, 22, 0]\nclass = INP", fillcolor="#b139e59b"] ;
65 -> 66 ;
67 [label="POS_PRON <= 0.5\ngini = 0.393\nsamples = 26\nvalue = [0, 0, 7, 0, 0, 19, 0]\nclass = INP", fillcolor="#b139e5a1"] ;
66 -> 67 ;
68 [label="POS_ADV <= 0.5\ngini = 0.403\nsamples = 25\nvalue = [0, 0, 7, 0, 0, 18, 0]\nclass = INP", fillcolor="#b139e59c"] ;
67 -> 68 ;
69 [label="POS_NUM <= 0.5\ngini = 0.388\nsamples = 19\nvalue = [0, 0, 5, 0, 0, 14, 0]\nclass = INP", fillcolor="#b139e5a4"] ;
68 -> 69 ;
70 [label="gini = 0.375\nsamples = 12\nvalue = [0, 0, 3, 0, 0, 9, 0]\nclass = INP", fillcolor="#b139e5aa"] ;
69 -> 70 ;
71 [label="gini = 0.408\nsamples = 7\nvalue = [0, 0, 2, 0, 0, 5, 0]\nclass = INP", fillcolor="#b139e599"] ;
69 -> 71 ;
72 [label="gini = 0.444\nsamples = 6\nvalue = [0, 0, 2, 0, 0, 4, 0]\nclass = INP", fillcolor="#b139e57f"] ;
68 -> 72 ;
73 [label="gini = 0.0\nsamples = 1\nvalue = [0, 0, 0, 0, 0, 1, 0]\nclass = INP", fillcolor="#b139e5ff"] ;
67 -> 73 ;
74 [label="gini = 0.56\nsamples = 5\nvalue = [1, 0, 1, 0, 0, 3, 0]\nclass = INP", fillcolor="#b139e57f"] ;
66 -> 74 ;
75 [label="gini = 0.485\nsamples = 92\nvalue = [0, 0, 38, 0, 0, 54, 0]\nclass = INP", fillcolor="#b139e54c"] ;
65 -> 75 ;
76 [label="gini = 0.0\nsamples = 1\nvalue = [0, 0, 1, 0, 0, 0, 0]\nclass = ENP", fillcolor="#39e54dff"] ;
64 -> 76 ;
77 [label="gini = 0.48\nsamples = 15\nvalue = [0, 0, 9, 0, 0, 6, 0]\nclass = ENP", fillcolor="#39e54d55"] ;
63 -> 77 ;
78 [label="gini = 0.488\nsamples = 19\nvalue = [0, 0, 11, 0, 0, 8, 0]\nclass = ENP", fillcolor="#39e54d46"] ;
62 -> 78 ;
79 [label="gini = 0.114\nsamples = 33\nvalue = [2, 0, 0, 0, 0, 31, 0]\nclass = INP", fillcolor="#b139e5ef"] ;
61 -> 79 ;
80 [label="gini = 0.04\nsamples = 49\nvalue = [0, 0, 1, 0, 0, 48, 0]\nclass = INP", fillcolor="#b139e5fa"] ;
60 -> 80 ;
}